digraph Tree {
node [shape=box, style="filled, rounded", color="black", fontname="helvetica"] ;
edge [fontname="helvetica"] ;
0 [label="Emails Clickados <= 11.0\ngini = 0.5\nsamples = 30\nvalue = [16, 14]\nclass = No vulnerable", fillcolor="#fcefe6"] ;
1 [label="gini = 0.0\nsamples = 9\nvalue = [9, 0]\nclass = No vulnerable", fillcolor="#e58139"] ;
0 -> 1 [labeldistance=2.5, labelangle=45, headlabel="True"] ;
2 [label="Emails Recibidos <= 90.0\ngini = 0.44\nsamples = 21\nvalue = [7, 14]\nclass = Vulnerable", fillcolor="#9ccef2"] ;
0 -> 2 [labeldistance=2.5, labelangle=-45, headlabel="False"] ;
3 [label="gini = 0.0\nsamples = 8\nvalue = [0, 8]\nclass = Vulnerable", fillcolor="#399de5"] ;
2 -> 3 ;
4 [label="Emails Clickados <= 75.0\ngini = 0.5\nsamples = 13\nvalue = [7, 6]\nclass = No vulnerable", fillcolor="#fbede3"] ;
2 -> 4 ;
5 [label="gini = 0.0\nsamples = 6\nvalue = [6, 0]\nclass = No vulnerable", fillcolor="#e58139"] ;
4 -> 5 ;
6 [label="Emails Clickados <= 96.5\ngini = 0.24\nsamples = 7\nvalue = [1, 6]\nclass = Vulnerable", fillcolor="#5aade9"] ;
4 -> 6 ;
7 [label="Emails Clickados <= 91.5\ngini = 0.44\nsamples = 3\nvalue = [1, 2]\nclass = Vulnerable", fillcolor="#9ccef2"] ;
6 -> 7 ;
8 [label="gini = 0.0\nsamples = 2\nvalue = [0, 2]\nclass = Vulnerable", fillcolor="#399de5"] ;
7 -> 8 ;
9 [label="gini = 0.0\nsamples = 1\nvalue = [1, 0]\nclass = No vulnerable", fillcolor="#e58139"] ;
7 -> 9 ;
10 [label="gini = 0.0\nsamples = 4\nvalue = [0, 4]\nclass = Vulnerable", fillcolor="#399de5"] ;
6 -> 10 ;
}